STATS
3.3476152 -0.0036782788 -0.0054470534 -0.008856866 0.7043548 0.7054546
2.5328085 4.145269 0.7068241 0.7073117 0.66544634 0.6679042
4.613491535186768 1.4064868688583374
LAYER
32 6
-0.74111396 -0.29484782 0.21807595 0.04027535 -0.22433195 0.07200533 0.39609364 -0.50818205 -0.0249684 0.45604283 -0.029452756 0.19742517 0.19793981 -0.27707645 0.032955453 0.39523357 -0.001462301 0.28580305 -0.10978909 -0.062999874 -0.49012217 0.30404675 -0.054938897 0.45785555 0.46695635 0.41870812 0.30094922 -0.40003657 -0.18425275 -0.10738169 0.27994773 -0.38973993 -0.5940818 -0.22584844 -0.0837567 0.37911144 0.23766685 0.40038565 0.15421844 -0.5234535 -0.08130315 0.22385699 0.118890464 -0.46320185 0.50482047 0.13518615 -0.03648457 0.24477692 0.14444143 -0.21688391 -0.22027348 -0.5554444 -0.07919209 -0.45670396 0.041135706 -0.9204035 -0.06449157 0.27964747 -0.024435652 0.14661029 -0.35449228 -0.3151758 -0.31469652 0.19479434 0.15400603 -0.17199457 -0.47240084 -0.28803346 -0.0726837 -0.3289529 0.2577246 0.3341313 0.034854364 -0.36180428 -0.12649833 -0.22310384 0.03527214 -0.11554134 -0.09639457 -1.0955029 0.13007618 0.07002739 0.0719334 -0.13646512 -0.3394631 0.7547293 0.41327003 -0.21300754 0.091367625 -0.21671389 0.51713514 0.28543916 0.4349896 0.32321408 0.12658122 -0.027091967 0.20571163 -0.7977116 0.18634108 0.0010728501 -0.09646461 -0.14010292 0.20767279 0.2170464 -0.08533854 0.039197665 -0.26757172 0.26373294 -0.2868292 0.22224323 0.22046925 -0.22003683 0.10683169 0.15303431 -0.059468977 0.26244983 0.079757504 0.488058 0.08722941 -0.5932438 0.35530752 -0.64772654 -0.07393643 0.19272244 -0.08337977 -0.11456016 0.115891315 -0.3673354 0.22269185 -0.3800468 -0.026894113 -0.2832531 -0.5127323 -0.51167774 -0.10751928 0.17682135 0.20726079 0.049942642 0.18458886 0.09349961 0.2638679 0.35671324 -0.13445161 -0.22683908 0.1998956 0.3730095 0.4699847 -0.009618863 -0.1821884 0.37051567 -0.3808632 0.15600857 -0.30359942 0.074729405 0.26762867 0.43259943 -0.2018271 -0.22629541 0.4265802 0.10765119 0.27731434 0.19344647 -0.19658685 -0.2233102 0.36222857 0.21623415 -0.025485266 0.050078645 0.44915894 0.44422948 -0.26420423 -0.39434043 -0.105407104 0.089353174 -0.5985149 -0.31663662 0.07378262 0.034115095 0.1770419 0.059588037 -0.09956503 -0.2759423 0.02996314 0.2730203 -0.27075827 0.37864146 0.44672206 0.24974318 -0.6642969 -0.001912679 -0.09583037 0.054173768
0.029719096 -0.15765882 0.16326346 -0.21622017 -0.13566098 -0.07027561 0.41537297 0.1979169 0.13344322 -0.23797561 0.40467978 0.02040519 0.41092542 0.3464169 0.04120515 0.054971192 0.132595 0.34267938 -0.69887364 0.25771034 0.5283776 0.37801716 0.36283568 0.48347205 0.2578134 0.21722417 -0.5647635 0.2267584 -0.002390985 -0.5798955 -0.36405808 0.42326748
LAYER
32 32
0.0430487 -0.011292142 -0.24764773 -0.41817757 0.1906671 -0.27057895 -0.1848959 -0.16153368 0.091874555 0.12588194 0.11135646 0.1670385 -0.19097666 0.056062657 0.14453472 0.18773875 -0.28361446 0.2287345 0.169697 0.06524452 -0.13952675 -0.13069485 0.11063382 -0.11842796 0.29275265 0.0681368 0.5787044 -0.009127589 0.17378972 0.65293795 0.043821696 -0.018946812 -0.14866042 -0.077707596 -0.12708707 -0.0032904195 -0.14406556 -0.117907174 -0.120139934 -0.14504208 -0.03828544 -0.14116564 -0.07415603 0.16189794 -0.18772852 -0.11779514 -0.025076333 0.039521817 -0.18180087 -0.036345452 0.17016141 0.041718602 0.14646423 -0.10559705 -0.10421446 -0.10738014 0.0151811 -0.18719031 -0.16234125 0.09107694 0.054490224 -0.09628182 0.01657374 0.010398445 0.1545524 0.057447568 0.10054576 0.13559647 0.2195173 0.08313084 0.04292578 0.1426768 -0.027021373 0.18597473 -0.22582223 0.0049779145 -0.0060197916 -0.26309475 0.12630993 0.026751246 0.17652754 0.09736543 0.16484036 -0.07745608 0.3217978 -0.11166893 -0.05628665 0.175945 0.028976768 0.13682266 0.22196263 0.083054245 0.112506524 -0.872039 0.11723899 0.31433553 -0.10922677 0.2186796 -0.18736361 0.28319964 0.30458656 0.025823422 0.1972984 -0.15507053 -0.30506018 0.38629577 -0.055422217 -0.08137573 -0.19814813 -0.10318344 0.1749425 0.17380063 0.06320658 0.07305773 0.31384546 -0.00023767675 -0.04629984 0.09391572 0.11913718 0.20389561 -0.0044171023 0.094078995 -0.030165663 -0.12930097 -0.061622463 -1.0155934 -0.15118921 0.12768991 -0.14170878 -0.16155279 -0.07996902 -0.23532422 0.10146942 -0.699121 -0.4222839 -0.04798051 -0.062343337 -0.4855679 0.24865349 0.20525433 0.059338145 0.13153093 0.25210124 -0.062390465 -0.33225676 0.37044522 -0.7044397 0.31010735 -0.88965935 -0.20105138 0.144802 -0.2646078 0.08854565 0.14762452 0.3550899 -0.38755357 0.31800294 0.7028276 -0.6009806 -0.48553273 0.31340328 0.020460997 0.09683379 0.041350666 -0.19504581 -0.062359665 -0.2463494 0.03563143 -0.032711178 -0.039935216 0.19042829 0.052634265 0.4381776 0.017654706 -0.5998367 0.0036635916 0.03604685 -0.19411963 -0.53086287 -0.16713294 -0.13334219 0.24669576 0.05315231 -0.0040391795 0.19256517 -0.27616397 0.14989205 0.14121237 -0.31253484 -0.14524268 0.06115221 -0.21808662 -0.13602035 -0.37092143 -0.02602674 -0.008713979 -0.16930658 0.2921772 0.1898135 -0.24153726 -0.019649163 -0.1757819 -0.22410414 0.06456086 0.111363925 -0.48405012 0.33307567 0.13253021 -0.2404955 0.22598867 0.45102364 0.35026667 0.0801967 -0.13000132 -0.081676506 0.15079078 0.21349643 0.011996734 0.052218825 -0.08244269 0.15724827 -0.5948021 -0.3363075 0.37713346 0.013189581 0.27019158 -0.06559128 -0.15099408 -0.32254627 0.18785742 0.16821814 -0.014496954 0.018847415 0.13406831 0.23270477 0.08304204 -0.28885445 0.30396307 -0.0146645205 -0.28407732 -0.18018207 0.0837214 0.36218867 -0.10858375 0.22889249 0.08506443 0.06267098 -0.16733931 0.15714592 0.049626462 0.15943326 -0.022856137 0.19773293 0.5934454 0.20155592 -0.013051181 0.04979136 -0.017433515 0.28792486 0.19941047 -0.18981452 -0.025567144 0.09279264 0.040852413 -0.09755685 0.03862507 -0.11691182 0.13527533 0.4521128 0.18762268 -0.47743183 0.18256938 0.04003222 -0.31435293 -0.54047763 0.041341312 -0.13069399 0.18458106 0.080883086 0.027348286 -0.05230386 -0.20905633 -0.06669563 -0.041518796 -0.12555127 -0.32398766 0.013291481 0.069477655 -0.038292415 0.0971358 -0.011610934 -0.030367479 0.17404795 0.045310237 -0.16312091 0.03697012 0.2130146 0.11450218 -0.009548541 0.28771162 -0.19103642 0.13084966 0.005107022 -0.16829886 0.1417537 0.09695966 0.40608737 -0.11040554 0.1807769 0.019358065 0.096194014 0.13637754 -0.038085915 0.15600938 0.051917665 -0.06446738 -0.065831065 0.43645486 0.17790422 0.019612925 0.1337944 -0.7807728 0.036570206 0.19726999 0.051567674 -0.5734991 -0.064784676 0.053445753 0.034421153 -1.6306216 0.24372463 -0.13524178 0.025596874 -0.085537426 -0.163006 -0.07886917 -0.3534579 -0.124574356 -0.16196857 -0.02076913 -0.7500615 0.048977546 0.06295898 0.19121203 -0.1120314 0.21984333 -0.012942011 0.2866204 -0.031132396 -0.5662142 -0.20428872 0.083618365 0.017673552 0.34930053 0.052779477 0.07266763 0.31623948 -0.12438276 0.04301862 -0.18534654 0.011872799 0.3359241 -0.014785524 0.065550715 -0.08016638 -0.24995594 0.2756386 0.10597365 -0.13148007 0.13252708 0.30212453 0.045834776 -0.012047217 -0.09828329 -0.0488025 0.058933355 0.13574855 0.10007314 0.22541042 -0.118949644 0.20051067 -0.01363014 0.43581957 0.15768416 -0.08770794 -0.032463767 0.24038467 0.042090986 0.3430093 0.2710902 -0.014480098 -0.11794264 -0.01925759 0.16184865 0.12633777 0.039420623 -0.2873441 0.2103775 -0.15724553 -0.2347765 0.12324514 0.075590536 0.44979864 0.068366244 0.04415898 0.17859687 0.08684347 -0.27969903 0.18557122 -0.05460447 0.1451236 0.033482753 -0.07727598 0.25118825 -0.05208219 -0.02071647 -0.06020778 -0.2977266 0.22302093 0.2706132 -0.42921364 -0.10198257 0.1567118 0.3761203 -0.23293342 -1.3319072 0.21938305 -0.055496633 0.2107369 0.26136887 -0.33897352 0.07407036 -0.90047216 -0.20183638 -0.60623115 -0.042837426 -0.730079 0.14872755 0.082674935 -0.09418413 -0.0763883 -0.18715826 -0.06267845 0.0580674 -1.1339701 -0.80833876 -0.07451033 -0.32719874 -0.08247927 0.079137124 0.10416474 0.29601488 0.35382992 -0.033691138 -0.2615027 0.23739824 0.2043531 0.20633598 0.047580745 -0.05520736 0.11621955 0.44220167 -0.23378801 0.45468825 0.19085306 -0.045415293 -0.48463932 -0.29863384 0.43878078 0.12327834 -0.046780717 0.03577097 -0.20660791 -0.078137495 0.021273423 0.19407383 -0.10292433 -0.034837525 0.03663503 -0.033378985 0.10052277 -0.012470348 0.039997153 0.283191 -0.12660897 0.03133087 -0.08019887 -0.09891399 0.025299191 -0.5925659 0.22689871 -0.31294724 0.045042437 0.019234067 -0.17971733 0.13307619 -0.5657755 -0.1529063 -0.49795452 -0.037403617 -0.45526764 0.068440296 0.06639505 0.2962347 0.036102746 0.24096839 0.07763844 0.12151099 -0.26455516 -0.10989509 -0.33412716 -0.1222735 -0.17433885 -0.087709844 0.069132395 -0.23619217 -0.16172498 -0.2610861 0.041159347 0.12378555 0.14839888 -0.03432138 -0.15741706 -0.01723807 -0.08957323 0.095071025 0.021427646 -0.03449924 -0.09049588 -0.045645278 -0.047250487 0.21978983 -0.022663528 0.06360866 -0.15220265 0.09692063 0.25476143 -0.33393037 -0.08706431 0.12197011 -0.028006554 -0.3165185 0.25691938 0.20678145 0.118717335 0.11314772 0.18886836 0.13868527 0.14150396 -0.034822017 -0.3188865 0.118569136 0.109432735 -0.08206364 0.16806419 -0.0091497665 0.13991386 0.4459302 -0.4652572 0.2738387 0.04032187 -0.15487565 -0.4348561 -0.3330672 0.2525852 0.25748095 -0.06929945 0.157612 -0.01593612 -0.15918761 0.13068868 -0.048589673 -0.13957189 0.32616857 -0.032700967 -0.13667366 0.20747194 0.23199281 0.13693373 0.052017562 0.1440262 0.03634745 0.24043003 -0.05983554 0.04574889 -0.057789758 0.099077255 0.072207965 0.21889724 0.19462846 0.17859283 -0.09402244 0.23095033 0.13321699 -0.11242162 -0.19378884 -0.042201936 -0.035012804 0.13891053 0.030691529 0.11180603 0.08117205 0.13309939 -0.20510098 0.037637584 -0.17341386 0.13824259 0.22845882 0.072593614 -0.11976711 -0.0704728 -0.24671343 -0.036473013 0.18137817 0.17865998 0.2073114 -0.46666497 0.37113607 0.17144601 0.23346043 0.084777 0.14757709 0.08321371 0.1011556 -0.038536035 -0.13541871 -0.6090021 -0.057795286 0.10889708 0.15690778 0.01009595 -0.07772776 0.07333763 -0.4167802 0.3086401 -0.057182968 0.08335515 0.39487392 0.033512082 -0.24667454 -0.16617133 -0.017124847 0.02055998 0.25602826 0.23107886 0.3206472 0.15997688 -0.14970225 -0.18849342 -0.057009485 0.14233251 -0.086840846 -0.015352038 -0.23482998 0.26517826 0.18831 0.0030902848 0.047930785 0.07728697 0.10319059 -0.0008875598 0.121712066 -0.2524192 0.16515478 0.11747943 0.101533525 -0.04861291 -0.10566932 0.09011665 -1.1174533 -0.1425145 0.16414315 0.053368893 0.42548183 -0.019375447 -0.17607261 -0.14767396 0.16422898 -0.068106286 -0.007070469 -0.100281335 0.40738222 0.09127933 0.045872774 -0.107709765 -0.3055248 0.33504048 -0.09510464 -0.33469 0.1875098 0.2518142 0.22158876 -0.4126454 0.0327679 0.21603443 -0.24816504 0.23535077 0.0023431086 0.31551707 -0.13106267 0.1671102 0.2380835 0.31261465 0.2629153 0.18461412 -0.030426245 -0.019255066 -0.25006157 0.008135469 0.14060323 -0.037482694 0.06124662 0.018247273 0.11227493 -0.11576523 -0.064553946 -0.007648745 0.2867084 -0.010758593 0.5475802 -0.035149764 -0.41276276 -0.2813538 -0.018278105 0.036465306 -0.2197859 -0.15712513 -0.30951446 -0.14811394 -0.17050217 -0.29041943 -0.22249746 0.24750458 0.21863115 0.07067492 0.063225694 0.14944339 0.09207832 0.08467213 -0.18478484 -0.072934255 0.3810374 0.2046536 0.056967568 0.1185296 -0.0381482 0.21701778 -0.053599883 0.10808331 -0.024220947 -0.38196012 0.10986032 -0.34417835 -0.15338162 -0.29134592 -0.13852689 -0.41478175 -0.051239926 0.1608572 0.1602188 -0.03017237 -0.20208375 -0.038207605 0.020764792 -0.32925698 -0.45235297 -0.13055448 -0.17946824 0.008077913 0.27542624 -0.16168538 0.098862566 0.0099589545 0.24301986 0.1561214 0.14854425 0.14166598 0.05314455 0.19348948 -0.12421522 -0.12301159 0.04002413 0.010894204 -0.0940989 -0.13321023 0.08019729 0.087775595 0.023059942 0.112340316 -0.038504932 0.20207563 -0.42527297 0.021239314 -0.024766574 0.13118501 0.08738717 0.30948356 0.42425147 0.19206423 -0.27473515 -0.17318918 -0.07560972 0.115874015 -0.06912766 0.05791943 0.098827064 0.091713555 0.10870905 0.09525845 0.006374029 -0.0066984436 0.12265119 -0.034016468 0.1823507 0.11210638 -0.031249732 0.1301504 -0.17750376 0.091566384 0.01625715 0.32842246 -0.11226064 -0.055425324 -0.014410469 0.09321026 0.13511981 0.15803117 -0.073978215 0.14112583 -0.14680463 0.15952441 -0.081625655 0.09004526 0.12832862 0.06048694 -0.03450059 0.18968727 -0.1612926 0.04223262 -0.046735566 0.097246364 -0.012367346 -0.19065069 0.13117558 0.09372889 0.15350492 -0.19769323 0.009133699 0.15445267 0.05752321 0.41388527 -0.27532762 0.31097922 0.09044291 -0.0006130314 0.01493323 0.07696247 -0.24220699 0.04358285 0.21037723 0.24328743 0.13394871 0.025841268 -0.0032872157 -0.16493772 0.12598276 0.36850148 -0.06741768 0.07091052 0.31525415 0.17331015 0.2569825 0.031641215 -0.24848771 -0.052952934 -0.40334272 0.04561768 -0.029219184 0.44036412 0.22762828 -0.13140996 0.02738003 -0.145561 -0.1009075 -0.27434728 0.07158149 -0.06867958 0.07654765 0.0934748 -0.21272211 -0.027691958 -0.030478206 -0.15136312 -0.4095106 -0.08962924 -0.31131965 -0.31115872 0.21723798 0.10378904 -0.13871664 0.12881552 0.02550367 0.20801762 -0.04343636 0.16470776 -0.019368729 0.07665663 -0.36531004 0.08229602 -0.1486565 0.19539239 0.22856198 -0.002618226 0.16099218 0.31345847 -0.04437506 -0.0032692158 -0.039018154 -0.08618678 0.2892737 0.24537978 -0.08560955 0.09413529 -0.012587211 -0.0027310627 -0.7075152 0.031202933 0.2590548 0.16727082 0.2293108 -0.022346202 -0.11061377 0.33258864 -0.21145059 -0.28582752 0.12612812 0.21976995 -0.028230608 0.26114553 0.04803319 -0.07359787 0.118865326 -0.23328431 0.14155348 0.17855923 -0.06502337 -0.2934351 -0.09541447 0.20089321 0.14698076 -0.013418474 -0.23019505 0.08766533 -0.042172085 0.06780121 0.005366653 0.044799864 0.56597817 0.06185172 -0.34934852 0.22875974 0.23350145 0.095820405 0.09908433 0.017534064 -0.06570504 0.11787155 -0.19779168 -0.1829578 0.17571744 0.23556133 0.038592294 0.07036635 0.11783506 0.03406002 0.03507978 0.03748921 -0.035954647 0.1872577 -0.019165441 -0.35720715 -0.018077591 0.2332095 -0.081245385 0.008252276 0.104949966 -0.14708647 -0.107419 0.05815627 0.011317538 -0.06760458 -0.0629175 0.18276781 -0.07063612 0.19899246 0.19831128 -0.10990544 -0.08460939 0.19743872 0.019780792 0.20799756 -0.11598105 0.2112535 0.012883705 0.29045144 0.015444992 -0.006497172 -0.027089387 0.16502054 0.03882366 0.017652698 0.026788779 0.016140316 0.2332679 0.28853562 0.2715434 0.0071717566 0.017115032 -0.06532281 0.14674132 -0.07660868 -0.026971608 -0.054801162 0.12360143
-0.19264379 -0.035246756 -0.019664193 0.05133821 -0.26726222 0.22753654 0.08819602 -0.28283495 0.28619125 -0.2744848 0.25462285 -0.024274461 -0.06433922 0.18154116 -0.1912839 0.32687065 0.40059915 -0.1586403 0.32306355 -0.1419183 0.11122473 -0.32566655 -0.2925769 0.217172 -0.21797118 -0.111110315 -0.02125337 0.16013388 0.43998605 -0.19325972 0.19402511 0.14487289
LAYER
1 32
0.55709 -0.109931126 0.3432041 0.30533326 1.055797 -0.33140898 0.41328263 0.26082587 -0.47696924 0.15707675 -0.54600364 0.30646673 0.20325463 -1.3410406 0.33229375 -0.42582583 -0.34396872 0.44450438 -0.23803838 -0.47456706 0.32723445 0.48562723 0.6642918 -0.50618684 0.41513148 0.07449268 0.26515648 -0.36081436 -0.3954717 0.35964206 -0.23785724 -0.27703944
-0.19139068
